<?xml version="1.0"?>
<opencv_storage>
<my_nb type_id="opencv-ml-bayesian">
  <var_count>9</var_count>
  <var_all>9</var_all>
  <cls_labels type_id="opencv-matrix">
    <rows>1</rows>
    <cols>2</cols>
    <dt>i</dt>
    <data>
      -1 1</data></cls_labels>
  <count>
    <_ type_id="opencv-matrix">
      <rows>1</rows>
      <cols>9</cols>
      <dt>i</dt>
      <data>
        303690 303690 303690 303690 303690 303690 303690 303690 303690</data></_>
    <_ type_id="opencv-matrix">
      <rows>1</rows>
      <cols>9</cols>
      <dt>i</dt>
      <data>
        3510 3510 3510 3510 3510 3510 3510 3510 3510</data></_></count>
  <sum>
    <_ type_id="opencv-matrix">
      <rows>1</rows>
      <cols>9</cols>
      <dt>d</dt>
      <data>
        87367697. 2.5588080089404106e+007 5.0697895527753830e+006
        1.1850357697158813e+007 -2.9454204069193304e+007
        -4.5460443486299336e+007 -1.3498879726108551e+007
        -4.7279449851564407e+007 -6.2700045463969231e+007</data></_>
    <_ type_id="opencv-matrix">
      <rows>1</rows>
      <cols>9</cols>
      <dt>d</dt>
      <data>
        2754110. 1.2324169146728516e+006 2.8681945361328125e+005
        1.1497831209716797e+006 1.0823894949951172e+006
        4.2827918603515625e+005 1.0792198145751953e+006
        3.6641721453857422e+005 3.6642680926513672e+005</data></_></sum>
  <productsum>
    <_ type_id="opencv-matrix">
      <rows>9</rows>
      <cols>9</cols>
      <dt>d</dt>
      <data>
        3.3709407966100000e+011 2.6826314948910114e+011
        2.4400709462961829e+011 2.0579203923208243e+011
        1.5575959923776233e+011 1.4117459352396094e+011
        1.5283296389710876e+011 1.2132590061838889e+011
        1.0491352143657495e+011 2.6826314948910114e+011
        4.2413085282224152e+011 3.4388655484466559e+011
        2.0039697659318796e+011 2.7126731819029031e+011
        2.3952051556465100e+011 1.5166486186703610e+011
        2.2208843705598920e+011 1.9454455956824448e+011
        2.4400709462961829e+011 3.4388655484466559e+011
        4.5980391729129224e+011 1.8878437350576898e+011
        2.5689148106217661e+011 3.1284472939072461e+011
        1.4223068869942880e+011 2.1282120547339810e+011
        2.5844599918136313e+011 2.0579203923208243e+011
        2.0039697659318796e+011 1.8878437350576898e+011
        3.4310626668868585e+011 2.5056855878095596e+011
        2.1799061360525110e+011 2.2467938298711594e+011
        1.8947983093464050e+011 1.6612246050134674e+011
        1.5575959923776233e+011 2.7126731819029031e+011
        2.5689148106217661e+011 2.5056855878095596e+011
        3.9446637207919006e+011 3.1048096578330359e+011
        1.9559102007535742e+011 2.7843706890029590e+011
        2.4652454981546585e+011 1.4117459352396094e+011
        2.3952051556465100e+011 3.1284472939072461e+011
        2.1799061360525110e+011 3.1048096578330359e+011
        4.2610186086952142e+011 1.8065945626736694e+011
        2.5665261956915686e+011 3.1014258677801428e+011
        1.5283296389710876e+011 1.5166486186703610e+011
        1.4223068869942880e+011 2.2467938298711594e+011
        1.9559102007535742e+011 1.8065945626736694e+011
        3.3248572311873932e+011 2.5487636032354178e+011
        2.1738626086267822e+011 1.2132590061838889e+011
        2.2208843705598920e+011 2.1282120547339810e+011
        1.8947983093464050e+011 2.7843706890029590e+011
        2.5665261956915686e+011 2.5487636032354178e+011
        3.9000246047156409e+011 3.1009870746837817e+011
        1.0491352143657495e+011 1.9454455956824448e+011
        2.5844599918136313e+011 1.6612246050134674e+011
        2.4652454981546585e+011 3.1014258677801428e+011
        2.1738626086267822e+011 3.1009870746837817e+011
        4.1631001067854010e+011</data></_>
    <_ type_id="opencv-matrix">
      <rows>9</rows>
      <cols>9</cols>
      <dt>d</dt>
      <data>
        8.6268210000000000e+009 4.5795618431461792e+009
        2.2171038421113892e+009 4.7366995786994019e+009
        4.6024283797886353e+009 2.9306460414930420e+009
        3.9090304696207275e+009 2.1866745908280640e+009
        2.2254306526784058e+009 4.5795618431461792e+009
        5.0018549659967527e+009 1.8204742670348117e+009
        2.8372002320469408e+009 3.0102712100241838e+009
        2.2095157417781386e+009 2.1005078804761167e+009
        1.1742840212806883e+009 1.5365764873611212e+009
        2.2171038421113892e+009 1.8204742670348117e+009
        3.3461066855508347e+009 1.3630877290094109e+009
        1.5796898121236432e+009 7.5113166420289946e+008
        8.6938155432827556e+008 3.9782799218702352e+008
        6.8563612149560261e+008 4.7366995786994019e+009
        2.8372002320469408e+009 1.3630877290094109e+009
        5.9979215533910875e+009 3.9895304900033684e+009
        2.3333053165135489e+009 3.1798236121781044e+009
        2.1057381566784866e+009 1.9558181978906889e+009
        4.6024283797886353e+009 3.0102712100241838e+009
        1.5796898121236432e+009 3.9895304900033684e+009
        5.4740859295215130e+009 2.9212199212716312e+009
        3.5220950257985964e+009 1.8362391030817614e+009
        2.5939385443937526e+009 2.9306460414930420e+009
        2.2095157417781386e+009 7.5113166420289946e+008
        2.3333053165135489e+009 2.9212199212716312e+009
        4.1194252156872549e+009 2.4382062696657195e+009
        1.4172982478205504e+009 1.8721235119026697e+009
        3.9090304696207275e+009 2.1005078804761167e+009
        8.6938155432827556e+008 3.1798236121781044e+009
        3.5220950257985964e+009 2.4382062696657195e+009
        6.6912868614552860e+009 3.1974638566221895e+009
        2.5227320773657498e+009 2.1866745908280640e+009
        1.1742840212806883e+009 3.9782799218702352e+008
        2.1057381566784866e+009 1.8362391030817614e+009
        1.4172982478205504e+009 3.1974638566221895e+009
        4.1055956269343247e+009 2.4639986934775186e+009
        2.2254306526784058e+009 1.5365764873611212e+009
        6.8563612149560261e+008 1.9558181978906889e+009
        2.5939385443937526e+009 1.8721235119026697e+009
        2.5227320773657498e+009 2.4639986934775186e+009
        4.1655593099207730e+009</data></_></productsum>
  <avg>
    <_ type_id="opencv-matrix">
      <rows>1</rows>
      <cols>9</cols>
      <dt>d</dt>
      <data>
        2.8768710527182321e+002 8.4257236291626683e+001
        1.6693962767214536e+001 3.9021231180344472e+001
        -9.6987731137651238e+001 -1.4969358057986545e+002
        -4.4449536455295039e+001 -1.5568326204868256e+002
        -2.0646068511959311e+002</data></_>
    <_ type_id="opencv-matrix">
      <rows>1</rows>
      <cols>9</cols>
      <dt>d</dt>
      <data>
        7.8464672364672367e+002 3.5111593010622551e+002
        8.1714944049367872e+001 3.2757353873837030e+002
        3.0837307549718440e+002 1.2201686211827814e+002
        3.0747003264250577e+002 1.0439236881440861e+002
        1.0439510235473981e+002</data></_></avg>
  <inv_eigen_values>
    <_ type_id="opencv-matrix">
      <rows>1</rows>
      <cols>9</cols>
      <dt>d</dt>
      <data>
        1.3832904500060139e-007 7.7556557364893861e-007
        1.0033708850854387e-006 1.5927796534372490e-006
        2.0182452382970600e-006 4.2489764786236847e-006
        4.8547611579393461e-006 5.7350040769189512e-006
        6.4168711347710550e-006</data></_>
    <_ type_id="opencv-matrix">
      <rows>1</rows>
      <cols>9</cols>
      <dt>d</dt>
      <data>
        1.5084333043871820e-007 6.0997108883608910e-007
        1.1997503326240297e-006 1.2307360040410988e-006
        1.3732797595505464e-006 1.5895503955103976e-006
        2.1771420609018554e-006 2.2723412254678787e-006
        3.4048556144539363e-006</data></_></inv_eigen_values>
  <cov_rotate_mats>
    <_ type_id="opencv-matrix">
      <rows>9</rows>
      <cols>9</cols>
      <dt>d</dt>
      <data>
        2.6105434352058982e-001 3.5664243343857627e-001
        3.7528936450696171e-001 2.9768413876473149e-001
        3.6236130975547443e-001 3.7012707143011980e-001
        2.7445422269234915e-001 3.3994875851708839e-001
        3.4060065213060653e-001 -4.1154236768382635e-001
        -4.5713484022132278e-001 -4.3055370078369520e-001
        4.6808342694290336e-002 8.0611364822111287e-002
        8.4555440095927331e-002 3.6979765234446221e-001
        3.9070104445278148e-001 3.6200508677147719e-001
        -3.9591008207382578e-001 -1.0418975410600913e-002
        3.3077564549964994e-001 -5.1643797549026438e-001
        1.2139685877739495e-003 3.5899327348383403e-001
        -4.5670363377825468e-001 1.8409500638680736e-002
        3.5948738327387547e-001 2.3461167953733422e-001
        1.8605907981596254e-001 1.3834763523402024e-001
        -4.2190189162769109e-001 -5.0399533407524921e-001
        -4.3225913989035253e-001 2.8084622111734164e-001
        3.1762120541527145e-001 3.0427128269872716e-001
        2.2402806179640938e-001 -4.6482398227380051e-001
        2.6384058296203916e-001 2.3921523455494156e-001
        -4.7628436905437277e-001 3.1449731363073541e-001
        1.7399050129898727e-001 -4.2534763945724097e-001
        2.6451019252451147e-001 -3.6217918254323317e-001
        -5.5824086077210990e-002 4.3523288464678639e-001
        -2.1315794022470849e-001 -2.5520135072208072e-002
        1.4268962678365793e-001 5.4645580959052964e-001
        3.1583677010478962e-002 -5.5697652770350159e-001
        -4.2510996822756153e-001 -7.2687068482631387e-002
        4.6102989525110422e-001 4.8269074835491466e-001
        1.2765279082409885e-002 -5.6281410792911901e-001
        -1.5134864506892443e-001 2.4720666663533612e-002
        1.6738872712252850e-001 -4.0636107630426765e-001
        6.0454578590294772e-001 -2.5473074473591323e-001
        8.9186216885415462e-002 -1.7063963296317308e-001
        6.8936412166931749e-002 2.7719890518291812e-001
        -4.7732609827261052e-001 2.4083933322603518e-001
        -1.5325121175915629e-001 1.9791588121074422e-001
        -9.3557330414037354e-002 3.4767652802688709e-001
        -5.9279372835496114e-001 3.1520050006345612e-001
        -2.6802887002781639e-001 4.6925039915293365e-001
        -2.5479453674105523e-001</data></_>
    <_ type_id="opencv-matrix">
      <rows>9</rows>
      <cols>9</cols>
      <dt>d</dt>
      <data>
        4.3973934495167111e-001 3.0939833053464205e-001
        1.6450942983167868e-001 3.8777785616793264e-001
        4.0138962847050719e-001 2.9175801198377699e-001
        3.8463441915775987e-001 2.5658911379937649e-001
        2.7101472691445222e-001 -3.4392021470743545e-001
        -3.9995591644895329e-001 -3.4530250336642615e-001
        -1.1485878353100569e-001 -6.8582133834411002e-002
        7.1108899195813544e-004 5.0370001936216935e-001
        4.7436322091059879e-001 3.2540682574396573e-001
        1.4516570466908493e-001 -2.8949165099678326e-001
        -1.9318528404023005e-001 5.5761416422548116e-001
        -1.5814878000146311e-002 -3.2454982758021172e-001
        3.1229195261665721e-001 -7.9349744175665801e-002
        -5.8091483503016650e-001 -2.1204202529908783e-001
        -1.7257033614969225e-001 -5.2486061767183212e-001
        3.2198597337493401e-001 3.3485075989678031e-001
        4.9522661415142399e-001 -3.2844397464354258e-001
        -2.6937342103433692e-001 9.1061014426909628e-002
        -5.5760257052996406e-002 -1.5807137779452873e-001
        1.5976726013322504e-001 4.7196008679702717e-001
        -3.3265569607440472e-004 -4.5208018243461856e-001
        -5.0596382656207395e-001 3.1918224954729268e-001
        4.0172008673982379e-001 -4.1059801507936605e-001
        -3.5097456499059371e-001 6.1401656305490115e-001
        3.1209560557386214e-002 4.2163362976495022e-001
        -1.8901158324724618e-003 2.0710893892671611e-001
        -3.2809316212689094e-001 4.3795233327497643e-002
        5.8678314767616990e-001 -4.0938644573734634e-001
        -1.9766945246969217e-001 -3.3917192280849151e-001
        2.9684590703857805e-001 -2.9383861398239253e-001
        -9.8955107866416630e-003 -2.8424566265127765e-001
        2.8040208366927211e-001 -3.2014336113465297e-001
        5.6078399087129649e-001 -3.1137841953282092e-001
        7.2520477596294750e-003 2.8111318849221650e-001
        -5.1522429692781579e-001 1.9611897858177249e-001
        -2.7009306854772247e-001 1.7357076721008766e-001
        -6.1701878277542137e-002 2.1825419239988150e-002
        -4.8290340712375861e-002 -2.8812623153495476e-001
        6.1391413864401356e-001 -9.0097146179315565e-002
        -2.3555649997097836e-001 5.1673479231846398e-001
        -4.5039768132141694e-001</data></_></cov_rotate_mats>
  <c type_id="opencv-matrix">
    <rows>1</rows>
    <cols>2</cols>
    <dt>d</dt>
    <data>
      1.1876864632793125e+002 1.2273104710375442e+002</data></c></my_nb>
</opencv_storage>
